-0.0254334 -0.0416193 -0.0265702 -0.0846481 -0.10388 -0.0449446 0.123325 -0.00669863 0.185102 0.055712 0.0403587 -0.0566239 0.0115213 0.0991406 -0.0201897 0.130537 -0.0459685 0.0403285 0.117154 -0.114793 0.00528195 0.0376865 0.00158498 -0.0356594 0.233501 0.113197 -0.0147514 0.167141 0.00812427 -0.0302136 -0.131631 -0.0252807 0.0946035 0.111511 0.0379984 0.147626 0.083792 -0.0150759 -0.0396249 -0.00297926 -0.0660467 -0.0285284 -0.153395 -0.0813736 -0.106036 -0.00820836 -0.0257751 0.102475 0.109508 -0.0208441 0.0861456 0.0419453 0.0128308 0.0256881 0.00311115 -0.032394 -0.0828369 0.0656852 0.0737052 -0.106402 0.111615 -0.0207034 -0.0509846 -0.128603 -0.111674 0.123168 0.117271 -0.0840952 0.00588328 0.0691885 0.0841992 -0.152735 0.122178 0.0171474 0.171694 -0.0145349 -0.0856675 -0.0330351 0.0614605 -0.0805612 0.0161828 0.114407 -0.0726236 -0.048843 -0.0370077 0.047238 -0.0656657 0.19486 0.105298 -0.040049 -0.0375576 0.0560924 0.117019 -0.0744641 0.0916518 -0.0542892 0.108431 -0.0970546 -0.154499 -0.0795834 0.000896235 -0.0271465 0.10307 -0.198992 0.00434242 0.0927961 -0.0254903 0.0732106 0.126056 0.0442612 0.127256 -0.0734473 -0.00369767 0.00122038 -0.180507 0.0852339 0.00511821 0.0221718 0.0891823 0.195271 0.0237952 -0.0610818 -0.00984552 0.0204682 -0.0957494 -0.0113037 -0.0568772 0.0533768 -0.0103066 0.0736403 0.105431 0.185371 -0.0238395 -0.022568 -0.0564262 -0.0121477 0.138442 0.062552 -0.0335804 0.0202402 0.0119679 0.168554 -0.0240618 0.0280489 0.0832781 -0.0116538 -0.0280503 -0.0535794 -0.012673 -0.045034 0.0403233 0.150339 0.0118325 0.0270128 -0.00437913 -0.0121455 0.0345441 -0.0243989 0.162668 0.0057831 -0.0390562 0.0133177 0.0158204 0.02627 0.0282322 -0.0431814 -0.0894528 0.227623 -0.104082 0.0157204 0.0328623 -0.105304 -0.150874 0.0158386 0.00541908 -0.0737318 -0.00557713 0.0523519 -0.0234587 0.035328 0.0704482 -0.0350749 -0.0155857 -0.0235501 -0.0700367 -0.0216501 -0.113334 -0.0244859 -0.129805 -0.159545 0.0404728 -0.113434 0.0353546 0.0349847 -0.0662704 -0.132842 0.173328 0.067472 0.142286 -0.0723093 -0.00370974 0.134207 -0.0903355 0.0166175 0.116712 0.025366 -0.105258 0.0664921 -0.0887034 -0.157184 0.0484523 0.0805257 0.108134 0.0859954 -0.0489118 0.00435006 0.0357707 0.0665607 0.12596 0.0752636 -0.0369212 0.0422827 -0.12205 -0.0483939 -0.0694229 -0.0354326 0.0181461 -0.0739993 0.0818681 -0.0410783 -0.152582 0.0062738 0.0664267 0.021165 0.0532971 -0.000919222 -0.0479935 0.0182489 0.158078 -0.0332645 -0.0394328 0.00724133 -0.00597037 -0.0449081 0.0139161 0.11352 -0.0146673 0.0986637 -0.0272815 -0.0100648 0.0138526 0.0991901 0.135775 -0.136359 -0.0719084 -0.00826821 -0.0532138 0.00380224 -0.10048 -0.016064 -0.122012 0.0729667 -0.110382 0.0562023 0.159782 -0.0632356 -0.0293555 -0.150857 0.0573725 0.0305437 -0.0846011 0.112331 -0.060235 -0.0580052 0.055793 -0.103002 0.0062676 0.0658238 0.1171 0.103988 0.0503227 0.073171 0.0709001 -0.020058 -0.00104113 0.148915 0.0411413 0.0404037 0.0987464 0.0689206 -0.0557266 0.0240621 -0.00160976 -0.0857681 -0.0261803 -0.0254273 0.0432236 0.196291 0.126397 0.0570432 0.125093 -0.112803 0.112461 -0.113204 -0.0627824 0.0781016 -0.0222153 0.114311 -0.111084 -0.0411391 -0.0659925 0.0886196 0.0297972 0.0673134 -0.0384007 0.0470991 -0.0169481 0.0645424 0.144935 0.148333 0.0657058 0.184968 -0.0796684 0.00331162 0.0276667 -0.0604851 0.216446 0.147848 -0.0712932 -0.0698236 -0.0848322 -0.00670359 -0.0291523 -0.127283 -0.0303555 -0.0166237 0.191648 0.0648661 0.17391 0.176037 0.0947187 -0.0649843 0.104224 0.0133708 -0.00594072 0.0544958 0.0752274 -0.135504 0.16493 0.0881501 -0.0123076 -0.05222 -0.0790835 -0.0415969 0.0187127 0.109669 -0.0358869 -0.0550212 0.00161268 0.0557102 0.0157776 -0.0506084 -0.0756852 0.0503938 -0.0338105 -0.00815946 -0.0408622 0.0788116 -0.201342 0.0340503 0.0204052 0.0454874 -0.0107015 -0.00956431 0.1152 0.0478051 -0.0329073 0.0235706 0.0178731 0.10524 -0.0961685 0.0281957 -0.148799 0.00781876 0.0499782 0.00730008 -0.110192 0.126933 -0.188371 0.0482592 -0.0266801 0.163038 -0.181811 0.0640671 0.0905132 0.192455 0.0524945 -0.0766208 0.131064 -0.101679 0.0950426 -0.045626 -0.0235966 -0.160442 -0.0804827 -0.0403388 0.199268 0.058429 0.0781172 -0.106173 -0.0436317 0.0156614 -0.00707924 -0.00511662 -0.133099 -0.030967 -0.0163899 -0.046972 -0.0138614 -0.0699163 -0.00514798 0.12681 0.125354 0.112196 -0.00798127 -0.040066 -0.0680737 0.0252474 0.0986618 0.118685 -0.0129033 -0.00795274 -0.0156693 -0.0878937 -0.0691717 0.179042 0.0412181 0.0406421 0.0765005 -0.0680202 0.0522223 -0.120457 0.0958939 0.000217852 -0.00623511 0.0139887 0.0998528 0.122332 -0.0045977 0.119014 -0.126759 -0.16789 -0.00365918 -0.0555821 0.0575678 0.0512449 -0.123954 0.119491 -0.0202731 -0.0321758 0.0308905 -0.133833 0.0205189 -0.000942691 -0.108741 -0.0481045 -0.0814898 0.123337 0.147155 -0.141238 0.0304154 -0.0535771 -0.113248 0.0261097 -0.0309768 -0.0855363 0.043465 0.102358 -0.113406 -0.164189 -0.0186272 -0.0472497 0.0479123 0.0853908 -0.105255 0.000386222 0.0159089 0.0847292 -0.10671 0.0919047 0.0301999 0.000109722 -0.0675862 0.0349836 0.0446338 0.0663317 0.142758 -0.0358393 -0.151872 -0.0586086 0.0371912 -5.40709e-005 -0.0736093 -0.0821245 0.18148 -0.0510728 0.144186 -0.0818665 -0.0524792 0.00186343 -0.103616 0.0610684 0.0587224 -0.0272458 -0.0532336 -0.132676 -0.10154 -0.0784008 0.0856735 -0.0530056 -0.0346832 -0.0305265 -0.0042001 0.0754041 -0.0345778 0.0152553 -0.173772 -0.000822836 -0.0222793 -0.100813 -0.136098 0.0254291 0.0715141 -0.130717 -0.127173 -0.140696 -0.127119 0.130578 -0.0596207 -0.109604 0.064174 -0.0250392 0.137669 -0.056113 -0.122338 0.0628782 0.0745816 0.163619 -0.0118333 0.0981684 0.0560349 -0.104969 -0.028013 -0.0814713 0.157373 -0.0731783 -0.14257 -0.0769909 -0.0421117 0.00415037 0.133347 -0.0946039 0.20528 -0.0302061 -0.0248166 0.120481 0.0433981 -0.0120748 -0.136739 0.0189041 -0.115669 -0.123925 0.143334 0.130439 -0.116729 0.206697 0.0963239 0.0777045 0.115215 -0.0657273 0.0636957 0.00863541 0.0201103 -0.0225856 0.117141 -0.00732788 -0.039308 0.133237 -0.0649791 -0.102934 0.0264764 0.169286 -0.0515245 -0.0649746 0.0616275 0.0294959 0.181734 0.0361343 0.0638032 -0.0909101 0.117187 0.0194254 -0.0193723 0.0352028 -0.0839023 -0.0888888 -0.058582 0.0600708 -0.0409408 -0.0625934 -0.0442557 -0.131802 0.0866044 0.105206 0.0616557 0.108018 -0.00564587 0.10371 -0.0418862 -0.0553752 0.0610234 -0.00167058 -0.115247 -0.0915009 -0.120147 0.125516 0.0891858 0.0943449 -0.00313391 0.0432049 -0.000716868 0.118573 0.227367 0.0724854 0.140567 -0.0485392 -0.152247 0.14687 0.0662165 0.0941023 -0.070112 0.105279 0.0461054 0.113794 0.0596773 0.0184277 -0.120703 -0.0390585 0.0331926 -0.0475597 -0.0319158 -0.082225 0.137433 0.161531 0.0044432 0.130184 0.0605479 0.0685842 0.0946844 -0.0412631 -0.0169171 0.115085 0.0413715 0.0406844 0.12644 -0.129574 -0.0567292 0.113905 -0.0209936 0.079469 -0.07876 0.0625577 0.0904213 -0.0779698 0.0168042 -0.0790183 0.0112833 -0.0155097 0.0998783 0.0479297 -0.0514384 -0.113832 -0.0962853 -0.0611158 0.081038 0.00743483 0.0565646 0.107302 0.0217734 -0.0184379 -0.0293221 -0.0213922 0.0229437 0.0125966 0.0560317 0.098352 -0.0272983 -0.0497908 -0.00623121 -0.0163312 0.135328 -0.0414535 0.0109596 -0.00541451 -0.00119595 0.00610763 0.031353 -0.0198197 -0.0289597 -0.0215706 0.0768714 -0.107875 -0.00941147 -0.0356832 -0.0589026 0.0556185 0.0738103 0.151386 -0.0179256 -0.0831313 0.0595924 -0.0113543 0.146793 0.141694 -0.0592179 -0.112556 -0.0939654 0.107438 -0.0876265 -0.0947707 0.104978 0.113128 0.0165052 0.0042577 -0.0915667 0.0375105 -0.0381809 0.0576247 -0.072519 -0.0542269 0.0366379 -0.123217 -0.0839993 0.0565369 0.0783081 -0.119142 -0.100518 -0.0313916 -0.0708461 0.0163633 -0.0692619 0.0278949 -0.0108102 0.117182 0.0121696 -0.140934 0.0637291 0.017383 0.121429 -0.0415465 0.0707408 -0.168462 -0.0855865 -0.0823338 -0.0223617 0.105719 0.123835 0.120646 0.134041 0.0161787 0.00224647 0.0486517 -0.0354129 0.0122821 0.130456 -0.0174276 0.106467 0.0170176 -0.100039 0.000764785 0.015762 0.0234488 -0.0262275 0.110805 0.0509661 0.0159918 0.0566472 0.153539 -0.00400505 0.125705 0.0261778 0.0562999 -0.0548913 -0.135138 -0.0905796 -0.0542059 0.0962422 0.167346 -0.0895856 -0.0203675 -0.0613695 -0.078123 -0.0364086 0.124548 0.0718231 0.0288413 -0.141745 0.00426602 -0.112471 0.0246579 0.144909 0.102487 0.136097 0.00466431 -0.0148478 0.0748217 -0.162101 -0.117868 -0.0183886 0.0184297 0.0427249 -0.000183045 -0.0878375 0.139544 0.14525 -0.095342 -0.0312503 -0.159388 0.0101362 -0.0822969 0.182086 0.0148019 -0.000519267 0.0194204 -0.0946847 0.167748 0.0765198 -0.0054877 -0.000654434 0.0660995 0.159573 -0.0175573 0.031874 0.0900187 0.0983089 0.112139 0.00491826 0.0536811 0.00939257 -0.127331 -0.0272115 -0.0300191 -0.0686337 0.0737067 -0.146354 -0.109431 -0.0503623 -0.0937529 -0.0496852 -0.10867 0.0195395 0.0236258 -0.00232148 -0.0738945 0.0440049 -0.0154747 -0.172117 0.00823653 0.140011 0.128016 -0.0979273 -0.0558776 0.106039 0.163421 -0.116945 0.0181739 -0.0414949 0.130496 0.0314063 0.176184 0.0257794 -0.0632398 0.0198982 0.0504146 0.00738105 0.0713395 -0.0125117 -0.174873 0.10793 0.0866342 -0.000235384 0.0716542 -0.0254679 -0.0106268 -0.0354734 -0.11749 -0.194939 0.0364585 0.0235278 0.177529 -0.000775519 -0.0705648 0.064881 0.0838879 0.0426766 0.0896616 0.0873852 -0.107319 -0.082094 0.110867 0.0420687 -0.151641 0.0317233 -0.0374723 -0.0372489 -0.0938346 0.0994047 0.0248398 0.0394872 -0.00128948 0.0864134 -0.0812245 -0.0972155 -0.080017 -0.0479264 0.103673 -0.00602703 -0.0244947 0.0773783 -0.172847 0.0624281 0.176917 0.0727843 -0.0556597 -0.143224 0.0748404 0.0910466 -0.0328689 -0.0207224 -0.0672477 -0.0351424 0.00757466 -0.0554116 0.0263744 0.21623 -0.0234046 -0.0555566 -0.0848078 0.0729815 0.173295 -0.0372871 0.098855 0.125875 0.0514592 -0.134517 0.134373 -0.0352163 0.016744 -0.114589 0.0803023 -0.0644683 -0.16105 -0.0177996 -0.153768 -0.0169207 0.187838 -0.121271 -0.0161223 0.0679281 -0.0726795 0.174532 -0.198148 -0.0421851 0.0209896 0.0226756 -0.045478 0.0808466 0.0110286 -0.0791446 -0.0360334 0.0763245 -0.0129564 0.0233803 -0.0118022 0.00149453 -0.167069 0.132698 0.063702 -0.250091 0.148145 -0.0532837 0.0906718 0.111895 -0.056876 -0.0246169 -0.11707 -0.140071 0.0612246 0.0889715 -0.120462 